the 0.041147 0.376062 0.394706 0.068801 0.432949 -0.095864 0.592219 -0.376450 0.160611 -0.017975 0.139419 -0.305259 0.034467 0.318685 -0.051554 -0.012769 0.455673 -0.124087 -0.341059 -0.337399 -0.059719 0.370481 -0.580846 -0.367605 -0.290294 0.122662 0.006513 0.319762 0.227203 0.885460 -0.618181 -0.452437 -0.357051 -0.215978 0.272722 0.351189 -0.115768 -0.963689 0.148253 1.115299 -0.133478 0.211383 0.123351 0.006479 -0.252121 -0.463730 -0.345434 0.591107 -0.107575 0.046027
to 0.016711 0.209632 0.253918 -0.000602 0.257025 -0.039387 0.422649 -0.259374 0.098573 -0.027644 0.064696 -0.191929 0.045366 0.192721 -0.043857 -0.041575 0.245297 -0.087117 -0.186783 -0.230804 0.011534 0.222960 -0.387873 -0.219909 -0.240671 0.079979 -0.003623 0.202269 0.188588 0.484247 -0.438225 -0.312299 -0.265031 -0.109000 0.153636 0.245105 -0.065566 -0.604565 0.057867 0.719056 -0.048909 0.123879 0.061213 -0.021025 -0.157535 -0.225187 -0.231085 0.358631 -0.086533 0.037632
Where 0.667029 0.361532 0.341728 0.177023 -0.087157 -0.015557 -0.213587 0.215261 -0.433737 -0.151004 0.164615 -0.364230 -0.327524 0.253725 -0.207169 -0.429839 0.504919 -0.116622 -0.649870 0.281589 -0.167785 0.089024 0.172823 -0.445347 0.035842 0.080783 0.188294 0.033452 0.417631 0.384138 -0.294542 -0.328371 -0.142386 -0.031867 0.094762 0.820112 -0.205428 -0.327202 0.093682 0.597869 -0.700645 0.174756 -0.155396 0.603805 -0.244999 -0.197622 -0.121004 0.410842 0.486774 0.021147
is 0.600420 0.275252 0.302865 0.212950 -0.165856 0.038570 -0.182254 0.160013 -0.413051 -0.147704 0.166306 -0.277154 -0.270188 0.189921 -0.179932 -0.382470 0.410955 -0.078182 -0.460717 0.277072 -0.175976 0.079061 0.090639 -0.363957 0.098957 0.194637 0.147085 0.042720 0.291047 0.357231 -0.191055 -0.246196 -0.238106 -0.012396 0.108553 0.618896 -0.200917 -0.283985 0.067066 0.518737 -0.573577 0.140100 -0.156235 0.417337 -0.208365 -0.171011 -0.041725 0.371641 0.398299 -0.017929
went -0.064742 -0.049212 0.020591 -0.022297 0.003189 -0.018265 0.077637 -0.021738 0.018305 0.002634 -0.025471 -0.018367 0.050968 -0.021512 0.020022 -0.009599 -0.018229 -0.015381 0.049571 -0.048159 0.032001 0.010808 -0.018651 0.034910 -0.055947 -0.026238 0.022836 0.017078 0.034252 -0.031874 -0.013053 0.022744 0.009118 -0.010651 -0.019202 -0.015677 0.027533 -0.003305 -0.033753 0.041323 0.090489 -0.002076 -0.001934 -0.031986 -0.004525 0.065032 -0.033503 -0.005051 -0.070347 -0.000409
Sandra -0.107096 -0.206248 -0.229752 -0.078809 -0.161224 0.045601 -0.232330 0.140308 -0.003318 0.035235 -0.090104 0.182767 0.061692 -0.181405 0.049011 0.063194 -0.285706 0.074432 0.233133 0.105690 0.064856 -0.171599 0.239092 0.233789 0.081943 -0.093139 -0.040976 -0.162937 -0.157038 -0.489766 0.286276 0.237590 0.189251 0.112357 -0.143588 -0.269241 0.077707 0.495201 -0.081071 -0.595928 0.157345 -0.121273 -0.044260 -0.074678 0.160440 0.258737 0.147854 -0.336602 -0.017039 0.005097
John -0.129701 -0.232756 -0.220193 -0.085705 -0.153724 0.025242 -0.201750 0.124962 0.000881 0.036513 -0.101859 0.165795 0.048183 -0.190673 0.046394 0.073014 -0.287579 0.078033 0.249227 0.095986 0.057436 -0.174999 0.253040 0.238266 0.094985 -0.099121 -0.029814 -0.160531 -0.137348 -0.492815 0.323727 0.259078 0.205235 0.127827 -0.149330 -0.260546 0.084204 0.485442 -0.090044 -0.600829 0.165269 -0.118091 -0.022571 -0.059795 0.154809 0.252576 0.125740 -0.343835 -0.043564 -0.004405
Daniel -0.137972 -0.214575 -0.227101 -0.074052 -0.150390 0.031945 -0.198944 0.134730 0.005517 0.039031 -0.107850 0.190874 0.060096 -0.183248 0.045962 0.059508 -0.291806 0.062419 0.227659 0.092415 0.067734 -0.175114 0.255111 0.237712 0.082256 -0.115090 -0.016972 -0.153251 -0.132025 -0.468196 0.304431 0.250779 0.204363 0.111822 -0.148903 -0.275519 0.097579 0.482360 -0.093803 -0.579238 0.162555 -0.115506 -0.022777 -0.080920 0.165263 0.249499 0.127049 -0.338539 -0.035994 -0.005175
Mary -0.185947 -0.237314 -0.233231 -0.093378 -0.097623 0.025113 -0.165095 0.107122 0.056031 0.047778 -0.104144 0.195287 0.094030 -0.177592 0.046498 0.089208 -0.321188 0.076639 0.256397 0.056856 0.081187 -0.174674 0.235220 0.268012 0.034174 -0.148278 -0.041683 -0.149795 -0.157786 -0.493806 0.274356 0.250507 0.213088 0.111604 -0.154162 -0.277026 0.096313 0.478750 -0.082698 -0.584999 0.217854 -0.103281 0.000282 -0.104373 0.155164 0.252578 0.093458 -0.366841 -0.072424 0.011306
travelled -0.040468 0.000903 -0.000991 -0.034218 0.023660 0.000645 0.083470 -0.050939 0.018644 -0.000820 -0.028263 0.013383 0.037074 -0.003506 -0.004359 0.002379 -0.041922 -0.003543 0.042355 -0.043026 0.039365 0.023231 -0.043983 0.013400 -0.069491 -0.011278 -0.010644 0.013495 0.011561 -0.024241 -0.029707 -0.017710 -0.015416 -0.000337 -0.014283 0.004109 0.008564 -0.023229 -0.022716 0.020370 0.048582 0.006543 0.014901 -0.037355 0.007620 0.022949 -0.049126 -0.024552 -0.035651 0.022580
journeyed -0.028868 -0.004696 0.011233 -0.028474 0.044100 -0.003594 0.079761 -0.048059 0.033552 0.012132 -0.011255 -0.011842 0.046397 -0.000180 -0.004650 -0.006691 -0.035285 -0.007921 -0.000516 -0.032497 0.023392 0.019469 -0.023694 0.022047 -0.058988 -0.024412 -0.020070 0.012843 0.030417 -0.017543 -0.047260 -0.006085 -0.019588 0.017465 -0.000035 -0.013355 0.007627 -0.019956 -0.013903 0.050478 0.044507 0.009363 0.011449 -0.033825 -0.004696 0.027214 -0.047779 -0.010221 -0.048260 0.008458
moved -0.081999 -0.018572 0.004615 -0.050629 0.069494 -0.027152 0.102813 -0.062414 0.068095 0.012710 -0.016622 -0.011310 0.067714 0.003499 0.009846 0.020538 -0.053467 0.002007 0.041221 -0.072499 0.028240 0.013551 -0.056487 0.022531 -0.083296 -0.025534 -0.014511 0.017288 0.011811 -0.040543 -0.044279 0.006279 -0.000400 0.021588 -0.004440 -0.042243 0.024255 -0.030146 -0.027815 -0.001054 0.084181 0.000263 0.028120 -0.047033 0.012233 0.024813 -0.053377 -0.020682 -0.089937 0.034067
2 0.073684 -0.130582 -0.154247 0.060106 -0.255768 0.085664 -0.310938 0.144646 -0.175309 -0.026222 -0.037432 0.144042 -0.090484 -0.120246 -0.006053 -0.013384 -0.161420 0.078426 0.103472 0.236594 -0.043376 -0.139998 0.226657 0.127489 0.224642 0.064161 -0.036760 -0.145795 -0.104798 -0.295953 0.298528 0.156207 0.066517 0.081933 -0.096218 -0.119687 0.000079 0.364597 -0.044799 -0.446321 -0.013896 -0.105675 -0.096703 -0.007011 0.087764 0.133499 0.169164 -0.205036 0.111702 -0.030018
back -0.039199 0.075905 0.162145 0.008002 0.131017 -0.046521 0.257807 -0.135857 0.059130 -0.008308 0.018650 -0.120326 0.044209 0.086137 0.006276 -0.023118 0.142959 -0.063360 -0.072278 -0.143885 0.010705 0.124898 -0.203462 -0.097677 -0.131446 0.030625 0.030420 0.126350 0.114221 0.266991 -0.219065 -0.138686 -0.112410 -0.088018 0.077562 0.116918 -0.015392 -0.329506 0.019319 0.422149 0.030459 0.069565 0.030048 -0.018529 -0.093504 -0.094629 -0.129136 0.211462 -0.091372 0.004393
garden. 0.017445 0.162873 0.162339 0.015966 0.185356 -0.046383 0.259833 -0.173629 0.072320 -0.013438 0.054145 -0.133602 0.021657 0.139975 -0.029401 0.006761 0.170891 -0.049671 -0.146868 -0.128350 -0.028058 0.169130 -0.265444 -0.148507 -0.133765 0.061961 -0.016032 0.144417 0.114430 0.372230 -0.263463 -0.197349 -0.164171 -0.085794 0.114560 0.139129 -0.051510 -0.422681 0.059564 0.459775 -0.033763 0.073280 0.037724 -0.006057 -0.095094 -0.192135 -0.155885 0.235389 -0.047887 0.028626
bathroom. -0.031346 0.159904 0.165242 -0.001689 0.221616 -0.046059 0.308061 -0.198649 0.100218 0.000228 0.043436 -0.112079 0.048787 0.134845 -0.009112 0.025096 0.165645 -0.049977 -0.126576 -0.179935 0.002411 0.190690 -0.284206 -0.146441 -0.169736 0.028830 -0.004028 0.157693 0.094088 0.384233 -0.297274 -0.214699 -0.152121 -0.096557 0.119501 0.132860 -0.032929 -0.430531 0.061315 0.498324 -0.006754 0.095899 0.076529 -0.036547 -0.097386 -0.184979 -0.172895 0.258248 -0.085939 0.018146
kitchen. -0.027266 0.145610 0.167570 0.017048 0.223165 -0.048312 0.299407 -0.185833 0.107426 0.005892 0.055975 -0.129589 0.039411 0.139936 -0.010310 0.010052 0.179566 -0.045230 -0.127380 -0.192856 -0.005401 0.167030 -0.280744 -0.139813 -0.156962 0.040805 -0.022856 0.149160 0.093605 0.375867 -0.281264 -0.189656 -0.158358 -0.101315 0.128634 0.128138 -0.031955 -0.428872 0.060078 0.488716 -0.017407 0.085410 0.071607 -0.027313 -0.101662 -0.199772 -0.160362 0.262391 -0.097694 0.030495
8 -0.007793 -0.109011 -0.151276 -0.022380 -0.172490 0.063982 -0.199768 0.149973 -0.029733 0.009305 -0.008972 0.133115 0.026392 -0.119933 0.012771 0.023246 -0.158528 0.076523 0.177415 0.106148 0.024164 -0.115719 0.124467 0.146429 0.138534 0.012741 -0.031514 -0.112476 -0.121611 -0.284800 0.245609 0.174605 0.074114 0.079046 -0.072058 -0.200894 0.021729 0.341786 -0.044401 -0.394157 0.053002 -0.071926 -0.025732 -0.049894 0.107683 0.159085 0.149474 -0.212389 0.014702 0.000229
office. -0.014479 0.151895 0.159302 0.008117 0.201354 -0.032894 0.302794 -0.188849 0.105204 0.001555 0.041885 -0.124872 0.036822 0.123462 -0.005663 0.011158 0.185974 -0.064725 -0.122046 -0.173122 -0.017535 0.144152 -0.264719 -0.138516 -0.136121 0.040193 -0.010597 0.141988 0.082827 0.377747 -0.267183 -0.179035 -0.156453 -0.075259 0.123403 0.123107 -0.038717 -0.423050 0.055832 0.486092 -0.031526 0.101844 0.062136 -0.021340 -0.111844 -0.193986 -0.171785 0.240647 -0.067514 0.036635
5 -0.055946 -0.135033 -0.138223 -0.033412 -0.113117 0.029713 -0.154257 0.073195 -0.003342 0.041294 -0.065364 0.117383 0.003129 -0.141472 0.034891 0.060434 -0.165703 0.057435 0.150717 0.084004 -0.008866 -0.140471 0.165320 0.161547 0.092483 -0.039448 -0.028362 -0.094620 -0.121183 -0.278177 0.215955 0.178597 0.104407 0.086569 -0.075805 -0.202107 0.051336 0.299239 -0.044752 -0.365913 0.102895 -0.079548 -0.014832 -0.076112 0.088600 0.143602 0.101107 -0.195058 -0.015047 -0.038226
bedroom. -0.042410 0.140654 0.179825 0.000714 0.205440 -0.049544 0.319003 -0.201345 0.101801 -0.002366 0.041251 -0.131414 0.040201 0.126058 -0.016314 0.016341 0.180062 -0.064000 -0.124658 -0.192520 -0.011866 0.156762 -0.275891 -0.151255 -0.148195 0.050698 -0.003034 0.151436 0.114131 0.376292 -0.282746 -0.203380 -0.143339 -0.108243 0.115681 0.120923 -0.036499 -0.438139 0.057850 0.494241 -0.022613 0.091674 0.065503 -0.023666 -0.095970 -0.201210 -0.162874 0.259701 -0.088929 0.011515
11 -0.114294 -0.155228 -0.146159 -0.030977 -0.111441 0.025328 -0.098357 0.071645 0.030817 -0.003229 -0.052231 0.124617 0.048895 -0.117204 0.041405 0.059582 -0.167811 0.051830 0.188654 0.037416 0.046697 -0.098222 0.107535 0.156193 0.052736 -0.032018 -0.019208 -0.088058 -0.113966 -0.248754 0.202123 0.156836 0.111949 0.059575 -0.081586 -0.197590 0.040157 0.262888 -0.046309 -0.382562 0.111384 -0.092666 -0.020988 -0.068765 0.101291 0.140249 0.088137 -0.203654 -0.043988 0.016038
hallway. -0.028061 0.158959 0.181224 0.032560 0.215681 -0.036131 0.295772 -0.176206 0.093676 0.005899 0.064457 -0.129168 0.044462 0.136581 -0.005587 0.008843 0.196280 -0.055557 -0.113833 -0.188320 -0.007066 0.166112 -0.298207 -0.148720 -0.153332 0.055853 0.009697 0.142000 0.085406 0.390072 -0.285276 -0.200429 -0.160392 -0.110846 0.109716 0.138236 -0.048150 -0.432727 0.061334 0.524390 -0.023510 0.090155 0.073615 -0.020706 -0.115722 -0.181274 -0.166330 0.247182 -0.092082 0.018904
1 -0.167096 -0.167638 -0.151489 -0.054161 -0.042901 0.010882 -0.069965 0.042645 0.061284 0.047222 -0.084716 0.148538 0.096068 -0.125806 0.058393 0.102797 -0.211530 0.039614 0.201056 0.000257 0.064425 -0.090771 0.071501 0.173470 0.006985 -0.066645 -0.045745 -0.076909 -0.130272 -0.285007 0.148752 0.163528 0.111694 0.018997 -0.104827 -0.218685 0.055507 0.272191 -0.035013 -0.356763 0.188277 -0.088004 0.017835 -0.107346 0.107808 0.137779 0.084410 -0.203832 -0.092238 0.001157
10 -0.264030 -0.168668 -0.139922 -0.091556 0.015442 -0.002513 0.028342 -0.015502 0.136465 0.058909 -0.086629 0.119586 0.122047 -0.117615 0.082079 0.115257 -0.200190 0.045830 0.243021 -0.058284 0.082775 -0.094740 0.042488 0.160623 -0.030163 -0.098445 -0.019468 -0.062423 -0.114818 -0.273942 0.131654 0.145132 0.148710 0.042343 -0.072148 -0.269924 0.088804 0.224536 -0.055038 -0.305710 0.244094 -0.067173 0.017756 -0.134133 0.104640 0.121830 0.049062 -0.201174 -0.152303 0.017204
Sandra? 0.262854 0.068979 0.096068 0.137866 -0.178000 0.054969 -0.102327 0.068318 -0.211232 -0.081699 0.076810 -0.063267 -0.112655 0.054541 -0.059609 -0.154449 0.136051 0.011162 -0.114481 0.161329 -0.092049 0.023642 0.003496 -0.109652 0.106127 0.180850 0.037578 0.002469 0.076276 0.136179 -0.008346 -0.050277 -0.149665 0.011291 0.052395 0.175423 -0.114962 -0.075043 0.014449 0.170917 -0.208754 0.035656 -0.088855 0.097165 -0.081223 -0.042447 0.027939 0.137704 0.156137 -0.024684
14 -0.252003 -0.157150 -0.141058 -0.129676 0.080938 -0.031267 0.031131 -0.037909 0.151543 0.066167 -0.114049 0.137092 0.104091 -0.121299 0.039368 0.147402 -0.228309 0.004478 0.179795 -0.088306 0.064959 -0.056774 0.088650 0.187665 -0.033923 -0.155157 -0.051379 -0.048191 -0.097729 -0.268547 0.124754 0.136434 0.158172 0.040821 -0.086815 -0.243846 0.127217 0.211809 -0.040153 -0.340493 0.225577 -0.082597 0.052230 -0.119942 0.126074 0.123201 0.022063 -0.213643 -0.153647 0.026554
4 -0.282455 -0.143889 -0.150719 -0.118359 0.044464 -0.006796 0.032768 -0.033296 0.170828 0.061197 -0.118507 0.133796 0.141361 -0.124487 0.085022 0.149454 -0.210676 0.041517 0.201059 -0.072000 0.086430 -0.089031 0.046885 0.200500 -0.052254 -0.123991 -0.063414 -0.074501 -0.126088 -0.269834 0.111387 0.131498 0.163630 0.044887 -0.075740 -0.263735 0.084731 0.238956 -0.057091 -0.308352 0.253774 -0.067164 0.038111 -0.165216 0.113761 0.135606 0.006014 -0.216763 -0.142499 0.024829
7 -0.257328 -0.137923 -0.179886 -0.130658 0.047063 -0.007256 0.048262 -0.015153 0.183745 0.073554 -0.077977 0.130166 0.140088 -0.096005 0.076153 0.158395 -0.236873 0.064438 0.223054 -0.120479 0.128445 -0.068141 0.013861 0.198832 -0.065775 -0.146938 -0.082262 -0.062228 -0.145369 -0.279078 0.138368 0.160841 0.141747 0.036027 -0.075494 -0.271297 0.106076 0.257331 -0.048474 -0.342630 0.244218 -0.056973 0.075946 -0.164045 0.129323 0.161322 0.007517 -0.254311 -0.169707 0.026705
Daniel? 0.228663 0.072659 0.091808 0.103674 -0.118556 0.058002 -0.051739 0.054943 -0.171644 -0.052163 0.096702 -0.074050 -0.093839 0.054177 -0.077570 -0.137496 0.114404 0.001644 -0.070522 0.092636 -0.061416 0.037445 -0.012596 -0.086028 0.070039 0.131960 0.052752 0.034080 0.048390 0.141120 -0.003100 -0.059133 -0.155583 0.027073 0.046387 0.136644 -0.076404 -0.098594 0.017908 0.163587 -0.165100 0.024270 -0.067430 0.077272 -0.073246 -0.022874 0.034609 0.116652 0.105899 -0.033264
13 -0.421555 -0.174673 -0.173905 -0.190732 0.208145 -0.061650 0.183650 -0.142373 0.317806 0.116928 -0.137812 0.144521 0.220918 -0.114092 0.106455 0.254558 -0.298025 0.018749 0.256996 -0.229837 0.143259 -0.026124 -0.034890 0.234534 -0.173597 -0.220491 -0.099127 -0.022289 -0.124428 -0.265654 0.037367 0.113311 0.188392 0.010421 -0.090096 -0.345490 0.153540 0.148658 -0.054948 -0.290925 0.392663 -0.070347 0.134978 -0.231710 0.144538 0.130948 -0.074677 -0.256733 -0.294190 0.045858
John? 0.266337 0.069720 0.096834 0.117974 -0.135990 0.046151 -0.104918 0.047545 -0.211530 -0.067906 0.080576 -0.059216 -0.110354 0.031265 -0.084003 -0.145549 0.104888 -0.010465 -0.116702 0.145947 -0.105913 0.020695 0.029399 -0.094741 0.122900 0.160700 0.045224 0.025924 0.063974 0.124404 0.012701 -0.044703 -0.156034 0.017337 0.035614 0.155314 -0.080562 -0.082819 0.007304 0.132057 -0.196940 0.025352 -0.072345 0.083605 -0.062100 -0.048281 0.031514 0.112897 0.139483 -0.041975
Mary? 0.177794 0.066437 0.095701 0.092959 -0.101482 0.045340 -0.040005 0.029671 -0.155039 -0.044639 0.067433 -0.064623 -0.067527 0.057902 -0.036033 -0.136365 0.120422 0.006887 -0.073475 0.105355 -0.075624 0.029355 -0.029695 -0.107071 0.053032 0.139942 0.037573 0.025129 0.049325 0.099138 -0.035483 -0.049759 -0.132620 0.020293 0.044305 0.128505 -0.074787 -0.098205 -0.003576 0.189055 -0.131631 0.046078 -0.071020 0.053794 -0.082036 -0.062093 0.012102 0.126449 0.102603 -0.030388
12 0.211504 0.099198 0.106520 0.049829 -0.043817 -0.005685 -0.080655 0.093044 -0.146766 -0.070290 0.055836 -0.122853 -0.107422 0.086856 -0.063116 -0.179306 0.185477 -0.045367 -0.212930 0.118751 -0.036458 0.019060 0.093803 -0.166252 0.004196 0.004394 0.089816 -0.013353 0.166113 0.094355 -0.102680 -0.116863 -0.009060 -0.011402 0.021910 0.300759 -0.074326 -0.090456 0.031573 0.171486 -0.255913 0.059363 -0.082613 0.254046 -0.084187 -0.058263 -0.044158 0.134306 0.187863 0.034285
15 0.173856 0.107414 0.122348 0.012587 0.059609 -0.034303 -0.041339 0.048905 -0.090818 -0.027481 0.008618 -0.118213 -0.090713 0.081387 -0.077686 -0.108559 0.135938 -0.080633 -0.244409 0.038158 -0.046670 0.049410 0.104857 -0.135298 -0.052824 -0.065048 0.072183 0.012158 0.161491 0.101202 -0.134092 -0.138521 -0.003405 -0.017697 0.013420 0.301326 -0.026896 -0.118140 0.034342 0.189539 -0.221032 0.049283 -0.019356 0.235104 -0.067984 -0.058503 -0.079269 0.122500 0.133107 0.022963
3 0.218546 0.091716 0.074675 0.059094 -0.050790 -0.007856 -0.153382 0.108594 -0.187326 -0.054208 0.010716 -0.098307 -0.130379 0.055433 -0.068283 -0.139968 0.132414 -0.033588 -0.239416 0.151131 -0.051605 -0.014990 0.138568 -0.125767 0.033691 -0.011091 0.041513 -0.039226 0.147158 0.023379 -0.066495 -0.088903 0.015394 -0.018584 -0.023068 0.299587 -0.064347 -0.004842 0.024093 0.080263 -0.240581 0.037650 -0.063978 0.242333 -0.058160 -0.035780 -0.035261 0.079583 0.201022 0.027788
6 0.222166 0.143053 0.108427 0.025002 -0.015394 -0.025333 -0.094387 0.090470 -0.138391 -0.038491 0.029443 -0.136838 -0.108884 0.072432 -0.059972 -0.140600 0.156629 -0.046370 -0.253550 0.106753 -0.056487 -0.010053 0.126736 -0.134908 -0.009851 -0.028766 0.068368 -0.019392 0.156925 0.070683 -0.097649 -0.090241 0.012305 0.025409 0.019507 0.296353 -0.057856 -0.063319 0.015389 0.164410 -0.237824 0.058344 -0.057079 0.237135 -0.067427 -0.049061 -0.066094 0.109880 0.179109 0.007015
9 0.243325 0.133899 0.107453 0.028876 -0.013159 -0.012367 -0.084347 0.130548 -0.123406 -0.038907 0.069163 -0.147566 -0.094324 0.077250 -0.085700 -0.153236 0.170169 -0.027433 -0.233688 0.081073 -0.024138 0.019531 0.071420 -0.149299 -0.008281 -0.017330 0.059784 0.006550 0.153586 0.098233 -0.099270 -0.098448 -0.021023 -0.010654 0.029243 0.296493 -0.062383 -0.063164 0.041630 0.175153 -0.269511 0.079368 -0.033363 0.242868 -0.056338 -0.026778 -0.045391 0.106097 0.171016 0.030041
garden 0.007067 -0.068461 -0.062676 0.061166 -0.156845 0.060475 -0.086078 0.024953 -0.076132 -0.026618 0.002130 0.093777 -0.021644 -0.053782 0.013104 0.001329 -0.085961 0.060141 0.108789 0.078545 -0.033577 -0.037043 0.004175 0.086702 0.126931 0.114585 -0.049958 -0.044085 -0.084982 -0.079942 0.157505 0.089664 -0.044400 0.042139 -0.018984 -0.125681 -0.020690 0.127239 -0.038765 -0.164709 0.046060 -0.056221 -0.037260 -0.097227 0.025289 0.058686 0.086924 -0.077029 -0.002269 -0.031856
office -0.030103 -0.086529 -0.082741 0.014822 -0.105388 0.045585 -0.016025 -0.001551 -0.009144 -0.010017 -0.004612 0.086791 0.020647 -0.061634 0.021197 0.026543 -0.091743 0.058819 0.155646 0.021286 -0.008702 -0.041954 -0.004804 0.103444 0.074052 0.068008 -0.023577 -0.011348 -0.110542 -0.081299 0.147782 0.096935 -0.026320 0.056779 -0.010397 -0.188474 0.010266 0.113082 -0.034464 -0.159483 0.089191 -0.046591 -0.021571 -0.147506 0.037708 0.088337 0.069581 -0.082851 -0.046962 -0.028352
bedroom -0.087661 -0.115154 -0.049474 0.006275 -0.045626 0.035375 -0.001099 -0.030001 0.007747 0.028302 -0.026333 0.091207 0.040768 -0.087502 0.025187 0.051082 -0.123102 0.023403 0.183298 0.006046 -0.018254 -0.030613 -0.008670 0.096128 0.033323 0.058184 -0.012373 -0.002648 -0.096430 -0.103561 0.093430 0.090995 -0.028766 0.032470 -0.028667 -0.182884 0.027859 0.073624 -0.018374 -0.143482 0.141505 -0.066809 -0.012448 -0.138591 0.042943 0.053206 0.088592 -0.071502 -0.095747 -0.031633
kitchen -0.042510 -0.087234 -0.067010 0.030582 -0.121635 0.060037 -0.037494 0.010280 -0.013395 -0.005315 -0.005237 0.101525 0.033983 -0.090346 0.015289 0.022402 -0.102475 0.062251 0.165268 0.054604 -0.003897 -0.051770 -0.023964 0.095668 0.097399 0.100342 -0.028259 -0.034067 -0.108508 -0.113696 0.148810 0.123769 -0.039050 0.045288 -0.023623 -0.183435 0.001999 0.132489 -0.040712 -0.166369 0.089923 -0.048909 -0.023706 -0.124238 0.047985 0.049512 0.100820 -0.085216 -0.035825 -0.013404
hallway -0.077932 -0.086815 -0.074364 0.000370 -0.100208 0.060028 0.003195 0.018390 0.028871 0.009041 0.018481 0.082737 0.085379 -0.047072 0.039053 0.039012 -0.100127 0.059424 0.206131 -0.008879 0.035557 -0.026322 -0.068656 0.091225 0.032130 0.075198 -0.027509 -0.022855 -0.120669 -0.090390 0.120167 0.094065 -0.044757 0.025638 -0.008665 -0.184766 0.001148 0.103570 -0.024053 -0.138328 0.118819 -0.033516 -0.006520 -0.135744 0.044609 0.062228 0.082353 -0.087037 -0.084889 -0.011920
bathroom -0.066279 -0.098204 -0.081155 -0.009907 -0.053471 0.040148 -0.019327 -0.041493 0.024792 0.040135 -0.023987 0.094269 0.045663 -0.076195 0.015804 0.085450 -0.128550 0.048618 0.152939 0.007508 0.013504 -0.022917 -0.010020 0.118802 0.059831 0.036119 -0.061914 -0.021775 -0.106301 -0.112127 0.118306 0.089046 -0.019809 0.028257 -0.018039 -0.201517 0.029309 0.107644 -0.026483 -0.160203 0.134298 -0.048247 0.012228 -0.149097 0.063982 0.073075 0.041071 -0.106485 -0.076141 -0.038726
<unk> 0.007773 0.001970 0.012536 0.001379 -0.001872 0.004275 0.017914 -0.006965 -0.008623 -0.003745 0.000939 -0.007155 0.007387 0.001000 -0.006722 -0.012089 0.002009 0.000807 -0.000793 0.000045 -0.000713 0.006692 -0.010722 -0.001519 -0.011312 0.008767 -0.000137 0.003534 0.011876 0.003492 -0.010857 -0.006699 -0.018128 0.005242 0.001940 0.010807 -0.006193 -0.014427 -0.003963 0.023746 -0.002192 0.003338 -0.004850 -0.000245 -0.004241 0.004908 -0.014559 0.008506 -0.004465 0.005303
